{"gradients/output_layer.weight":{"_type":"histogram","values":[1,0,0,0,0,0,1,0,2,1,2,0,39,1,1,3,0,1,1,1,0,2,1,1,1,1,0,1,0,1,1,0,0,0,0,0,0,0,0,0,0,0,0,0,0,0,0,0,0,0,0,0,0,0,0,0,0,0,0,0,0,0,0,1],"bins":[-0.023297986015677452,-0.021399134770035744,-0.019500283524394035,-0.017601430416107178,-0.01570257917046547,-0.013803727924823761,-0.011904876679182053,-0.01000602450221777,-0.008107173256576061,-0.006208321545273066,-0.00430946983397007,-0.0024106185883283615,-0.0005117668770253658,0.001387084717862308,0.003285936312749982,0.005184787791222334,0.00708363950252533,0.008982490748167038,0.010881342925131321,0.01278019417077303,0.014679046347737312,0.01657789759337902,0.01847674883902073,0.020375600084662437,0.022274453192949295,0.024173304438591003,0.026072155684232712,0.02797100692987442,0.02986985817551613,0.03176870942115784,0.033667560666799545,0.035566411912441254,0.03746526315808296,0.03936411440372467,0.04126296564936638,0.04316181689500809,0.045060668140649796,0.046959519386291504,0.04885837435722351,0.05075722560286522,0.05265607684850693,0.054554928094148636,0.056453779339790344,0.05835263058543205,0.06025148183107376,0.06215033307671547,0.06404918432235718,0.06594803929328918,0.0678468868136406,0.0697457417845726,0.07164458930492401,0.07354344427585602,0.07544229179620743,0.07734114676713943,0.07924000173807144,0.08113884925842285,0.08303770422935486,0.08493655174970627,0.08683540672063828,0.08873425424098969,0.09063310921192169,0.0925319567322731,0.09443081170320511,0.09632965922355652,0.09822851419448853]},"_step":3,"gradients/input_layer.bias":{"_type":"histogram","values":[2,0,1,0,0,0,0,0,0,0,1,0,0,0,0,0,0,0,1,0,0,0,0,0,0,1,1,0,1,0,0,2,1,0,1,0,1,0,1,1,3,0,34,1,0,1,0,0,0,0,2,0,0,0,0,0,0,0,1,0,2,3,1,1],"bins":[-0.022318052127957344,-0.021791931241750717,-0.02126581035554409,-0.020739689469337463,-0.020213568583130836,-0.01968744769692421,-0.019161326810717583,-0.018635205924510956,-0.01810908503830433,-0.017582964152097702,-0.017056843265891075,-0.016530722379684448,-0.01600460149347782,-0.015478481538593769,-0.014952360652387142,-0.014426239766180515,-0.013900118879973888,-0.013373997993767262,-0.012847877107560635,-0.012321756221354008,-0.01179563533514738,-0.011269514448940754,-0.010743393562734127,-0.0102172726765275,-0.009691152721643448,-0.009165031835436821,-0.008638910949230194,-0.008112790063023567,-0.00758666917681694,-0.007060548290610313,-0.0065344274044036865,-0.00600830651819706,-0.005482184700667858,-0.004956063814461231,-0.004429942928254604,-0.003903822274878621,-0.003377701388671994,-0.0028515805024653673,-0.002325459849089384,-0.0017993389628827572,-0.0012732180766761303,-0.0007470972486771643,-0.00022097642067819834,0.00030514440732076764,0.0008312652353197336,0.0013573861215263605,0.0018835068913176656,0.0024096276611089706,0.0029357485473155975,0.0034618694335222244,0.003987990319728851,0.004514111205935478,0.005040232092142105,0.005566352512687445,0.006092473398894072,0.0066185942851006985,0.007144715171307325,0.007670836057513952,0.008196956478059292,0.008723077364265919,0.009249198250472546,0.009775319136679173,0.0103014400228858,0.010827560909092426,0.011353681795299053]},"_runtime":1227.438101,"gradients/input_layer.weight":{"values":[2,0,0,1,0,0,0,1,0,0,1,3,1,0,1,3,1,1,1,0,6,1,2,5,6,2,7,4,4,14,6,8,9,22,33,56,69,158,184,1814,3.195155e+06,1345,727,173,65,36,33,18,16,9,13,7,9,10,3,6,0,2,3,2,3,0,2,1],"bins":[-0.31784841418266296,-0.31002721190452576,-0.30220600962638855,-0.29438483715057373,-0.2865636348724365,-0.2787424325942993,-0.2709212303161621,-0.2631000280380249,-0.2552788257598877,-0.24745763838291168,-0.23963645100593567,-0.23181524872779846,-0.22399404644966125,-0.21617285907268524,-0.20835165679454803,-0.20053046941757202,-0.19270926713943481,-0.1848880648612976,-0.1770668774843216,-0.1692456752061844,-0.16142448782920837,-0.15360328555107117,-0.14578208327293396,-0.13796089589595795,-0.13013969361782074,-0.12231849879026413,-0.11449730396270752,-0.10667610168457031,-0.0988549068570137,-0.09103371202945709,-0.08321250975131989,-0.07539131492376328,-0.06757009029388428,-0.05974889546632767,-0.05192769691348076,-0.04410649836063385,-0.03628530353307724,-0.02846410684287548,-0.02064291015267372,-0.012821713462471962,-0.005000516772270203,0.0028206799179315567,0.010641876608133316,0.018463073298335075,0.026284269988536835,0.034105464816093445,0.04192666336894035,0.04974786192178726,0.05756905674934387,0.06539025157690048,0.07321144640445709,0.0810326486825943,0.08885384351015091,0.09667503833770752,0.10449624061584473,0.11231743544340134,0.12013863027095795,0.12795983254909515,0.13578101992607117,0.14360222220420837,0.15142342448234558,0.1592446118593216,0.1670658141374588,0.17488700151443481,0.18270820379257202],"_type":"histogram"},"test_acc":0.8847600221633911,"_timestamp":1.741029162384671e+09,"_wandb":{"runtime":1227},"gradients/output_layer.bias":{"bins":[0.023911667987704277,0.023911667987704277],"_type":"histogram","values":[1]}}