{"test_acc":0,"_timestamp":1.7410270831803148e+09,"_runtime":1588.81801,"_step":4,"gradients/output_layer.weight":{"_type":"histogram","values":[1,1,1,1,0,1,0,0,1,1,0,0,1,1,2,4,9,30,1,2,1,0,0,1,0,1,0,0,0,0,1,0,0,0,1,0,1,0,0,0,0,0,0,0,0,0,0,0,0,0,0,0,0,0,0,0,0,0,0,0,0,0,0,1],"bins":[-0.0765492245554924,-0.07205799221992493,-0.06756675988435745,-0.06307552754878998,-0.058584295213222504,-0.05409306660294533,-0.04960183426737785,-0.04511060193181038,-0.040619369596242905,-0.03612813726067543,-0.031636904925107956,-0.02714567445218563,-0.022654442116618156,-0.018163209781050682,-0.013671978376805782,-0.009180746972560883,-0.004689514636993408,-0.00019828276708722115,0.004292949102818966,0.008784180507063866,0.01327541284263134,0.017766645178198814,0.02225787565112114,0.026749107986688614,0.031240340322256088,0.03573157265782356,0.04022280499339104,0.04471403732895851,0.04920526593923569,0.05369649827480316,0.058187730610370636,0.06267896294593811,0.06717018783092499,0.07166142016649246,0.07615265250205994,0.08064388483762741,0.08513511717319489,0.08962634950876236,0.09411758184432983,0.09860881417989731,0.10310004651546478,0.10759127140045166,0.11208250373601913,0.11657373607158661,0.12106496840715408,0.12555620074272156,0.13004744052886963,0.1345386654138565,0.13902989029884338,0.14352113008499146,0.14801235496997833,0.1525035947561264,0.15699481964111328,0.16148605942726135,0.16597728431224823,0.1704685240983963,0.17495974898338318,0.17945098876953125,0.18394221365451813,0.1884334534406662,0.19292467832565308,0.19741591811180115,0.20190714299678802,0.2063983827829361,0.21088960766792297]},"gradients/output_layer.bias":{"_type":"histogram","values":[1],"bins":[0.004817487671971321,0.004817487671971321]},"gradients/input_layer.bias":{"values":[1,0,0,0,0,0,1,0,1,0,0,1,1,0,0,0,1,0,0,0,0,1,0,2,2,0,1,1,2,1,4,5,25,0,0,1,1,0,0,1,0,0,1,0,0,0,0,0,0,0,0,0,0,1,1,1,1,1,0,0,3,0,1,1],"bins":[-0.016628790646791458,-0.016116905957460403,-0.015605021268129349,-0.015093137510120869,-0.014581252820789814,-0.01406936813145876,-0.01355748437345028,-0.013045599684119225,-0.01253371499478817,-0.012021830305457115,-0.01150994561612606,-0.01099806185811758,-0.010486177168786526,-0.009974292479455471,-0.009462408721446991,-0.008950524032115936,-0.008438639342784882,-0.007926754653453827,-0.0074148704297840595,-0.006902986206114292,-0.0063911015167832375,-0.005879216827452183,-0.005367332603782415,-0.004855448380112648,-0.004343563690781593,-0.0038316792342811823,-0.0033197947777807713,-0.0028079103212803602,-0.002296025864779949,-0.0017841414082795382,-0.0012722569517791271,-0.0007603724952787161,-0.0002484899014234543,0.00026339455507695675,0.0007752790115773678,0.0012871634680777788,0.0017990479245781898,0.002310932381078601,0.002822816837579012,0.003334701294079423,0.003846585750579834,0.004358470439910889,0.004870354663580656,0.005382238887250423,0.005894123576581478,0.006406008265912533,0.0069178924895823,0.0074297767132520676,0.007941661402583122,0.008453546091914177,0.008965430781245232,0.009477314539253712,0.009989199228584766,0.010501083917915821,0.011012967675924301,0.011524852365255356,0.01203673705458641,0.012548621743917465,0.01306050643324852,0.013572390191257,0.014084274880588055,0.01459615956991911,0.01510804332792759,0.015619928017258644,0.0161318127065897],"_type":"histogram"},"_wandb":{"runtime":1589},"gradients/input_layer.weight":{"_type":"histogram","values":[1,0,0,1,0,0,0,0,1,0,2,0,2,0,3,2,4,2,4,0,4,6,7,3,6,6,25,14,36,81,111,322,781,3.196658e+06,430,993,150,155,38,74,28,23,5,13,3,10,13,4,5,8,5,7,0,2,6,1,2,1,0,1,1,2,1,1],"bins":[-0.29366376996040344,-0.2849178612232208,-0.2761719524860382,-0.2674260437488556,-0.258680135011673,-0.24993422627449036,-0.24118831753730774,-0.23244240880012512,-0.2236965000629425,-0.2149505913257599,-0.20620468258857727,-0.19745877385139465,-0.18871286511421204,-0.17996695637702942,-0.1712210476398468,-0.16247513890266418,-0.15372923016548157,-0.14498332142829895,-0.13623741269111633,-0.12749150395393372,-0.1187455952167511,-0.10999968647956848,-0.10125377774238586,-0.09250786900520325,-0.08376196026802063,-0.07501605153083801,-0.0662701427936554,-0.05752423405647278,-0.04877832531929016,-0.040032416582107544,-0.03128650784492493,-0.02254059910774231,-0.01379472017288208,-0.005048811435699463,0.0036970973014831543,0.012443006038665771,0.02118891477584839,0.029934823513031006,0.03868073225021362,0.04742664098739624,0.05617254972457886,0.06491845846176147,0.07366436719894409,0.08241027593612671,0.09115618467330933,0.09990209341049194,0.10864800214767456,0.11739391088485718,0.1261398196220398,0.1348857283592224,0.14363163709640503,0.15237754583358765,0.16112345457077026,0.16986936330795288,0.1786152720451355,0.18736118078231812,0.19610708951950073,0.20485299825668335,0.21359890699386597,0.22234481573104858,0.2310907244682312,0.23983663320541382,0.24858254194259644,0.25732845067977905,0.26607435941696167]}}